{
    "name": "Small Earth",
    "creator": "Anonemous2",
    "version": "1.0",
    "date": "2019-8-20",
    "description": "A flat surfaced earth. While there is no metal in the oceans, naval is still very important for victory (The shores are impassable). Recommended for FFAs.",
    "players": [
        4,
        16
    ],
    "planets": [
        {
            "name": "Earth",
            "mass": 20000,
            "position_x": 0,
            "position_y": 14000,
            "velocity_x": -188.98223876953125,
            "velocity_y": -0.000008260675713245291,
            "required_thrust_to_move": 0,
            "starting_planet": true,
            "respawn": false,
            "start_destroyed": false,
            "min_spawn_delay": 0,
            "max_spawn_delay": 0,
            "planet": {
                "seed": 32,
                "radius": 600,
                "heightRange": 0,
                "waterHeight": 250,
                "waterDepth": 10,
                "temperature": 50,
                "metalDensity": 0,
                "metalClusters": 0,
                "metalSpotLimit": -1,
                "biomeScale": 50,
                "biome": "earth",
                "symmetryType": "none",
                "symmetricalMetal": false,
                "symmetricalStarts": false,
                "numArmies": 2,
                "landingZonesPerArmy": 0,
                "landingZoneSize": 50
            },
            "planetCSG": [
                {
                    "spec": "/pa/terrain/earth_csg/brushes/earth_01.json",
                    "proj": "BP_LongitudePinch",
                    "op": "BO_Add",
                    "position": [
                        0,
                        800,
                        0
                    ],
                    "height": "601",
                    "transform": [
                        -0.75,
                        6.556707887739321e-8,
                        0,
                        0,
                        -3.9081024454470405e-15,
                        -4.470348358154297e-8,
                        0.7499999403953552,
                        605.9999389648438,
                        6.556707177196586e-8,
                        0.7499999403953552,
                        4.470348358154297e-8,
                        0.00003612041473388672
                    ],
                    "scale": [
                        0.75,
                        0.75,
                        0.75
                    ],
                    "rotation": 3.1415927410125732,
                    "weight": [
                        0,
                        0,
                        0,
                        0
                    ],
                    "weightHard": false,
                    "weightScale": [
                        1,
                        1,
                        1
                    ],
                    "mirrored": false,
                    "twinId": 0,
                    "flooded": false,
                    "pathable": true,
                    "mergeable": false,
                    "no_features": false
                },
                {
                    "spec": "/pa/terrain/earth_csg/brushes/earth_02.json",
                    "proj": "BP_Bend",
                    "op": "BO_Add",
                    "position": [
                        0,
                        0,
                        -825.786376953125
                    ],
                    "height": "601",
                    "transform": [
                        0.4203139543533325,
                        0.38501477241516113,
                        0,
                        0,
                        0.38501477241516113,
                        -0.4203139543533325,
                        0,
                        0,
                        0,
                        0,
                        -0.570000171661377,
                        -608
                    ],
                    "scale": [
                        0.570000171661377,
                        0.570000171661377,
                        0.570000171661377
                    ],
                    "rotation": 2.399998426437378,
                    "weight": [
                        0,
                        0,
                        0,
                        0
                    ],
                    "weightHard": false,
                    "weightScale": [
                        1,
                        1,
                        1
                    ],
                    "mirrored": false,
                    "twinId": 0,
                    "flooded": false,
                    "pathable": true,
                    "mergeable": false,
                    "no_features": false
                }
            ],
            "metal_spots": [
                [
                    -195.2515869140625,
                    -573.1859130859375,
                    -106.1842041015625
                ],
                [
                    -293.2818603515625,
                    -414.279541015625,
                    -346.9378356933594
                ],
                [
                    -405.328857421875,
                    -462.2138671875,
                    6.10772705078125
                ],
                [
                    -497.3045654296875,
                    -116.01797485351562,
                    342.1656494140625
                ],
                [
                    -246.161376953125,
                    -321.13763427734375,
                    462.789306640625
                ],
                [
                    -289.287109375,
                    8.677726745605469,
                    542.4630126953125
                ],
                [
                    439.565185546875,
                    -324.711669921875,
                    -281.72052001953125
                ],
                [
                    576.0758056640625,
                    -204.7891845703125,
                    63.3167724609375
                ],
                [
                    394.1353759765625,
                    -458.60400390625,
                    110.54067993164062
                ],
                [
                    288.51123046875,
                    -302.13458251953125,
                    451.053955078125
                ],
                [
                    5.058837890625,
                    251.9451904296875,
                    560.6602783203125
                ],
                [
                    504.50634765625,
                    -24.12054443359375,
                    350.616943359375
                ],
                [
                    263.33355712890625,
                    490.463623046875,
                    -260.733642578125
                ],
                [
                    66.175537109375,
                    541.112548828125,
                    -284.285400390625
                ],
                [
                    334.376220703125,
                    337.0428466796875,
                    390.63861083984375
                ],
                [
                    431.146240234375,
                    437.2232666015625,
                    30.025360107421875
                ],
                [
                    -297.01953125,
                    -386.39312744140625,
                    -374.6788330078125
                ],
                [
                    -287.94091796875,
                    -439.0020751953125,
                    -319.79376220703125
                ],
                [
                    -214.66534423828125,
                    -570.707763671875,
                    -78.98530578613281
                ],
                [
                    -173.29531860351562,
                    -572.9317626953125,
                    -139.56710815429688
                ],
                [
                    -421.46038818359375,
                    -447.02264404296875,
                    -27.059003829956055
                ],
                [
                    -387.29669189453125,
                    -475.97650146484375,
                    36.6734504699707
                ],
                [
                    -498.93438720703125,
                    -79.3157958984375,
                    350.37554931640625
                ],
                [
                    -492.9539794921875,
                    -152.48849487304688,
                    334.2255554199219
                ],
                [
                    -222.46600341796875,
                    -305.2648010253906,
                    485.130126953125
                ],
                [
                    -268.48675537109375,
                    -335.40020751953125,
                    439.6845703125
                ],
                [
                    -307.3048095703125,
                    37.092071533203125,
                    531.1763916015625
                ],
                [
                    -270.14056396484375,
                    -18.12474822998047,
                    551.916748046875
                ],
                [
                    -6.815891265869141,
                    283.89459228515625,
                    545.1943359375
                ],
                [
                    16.21780014038086,
                    220.68328857421875,
                    573.5560302734375
                ],
                [
                    309.1412353515625,
                    362.6639099121094,
                    388.448486328125
                ],
                [
                    425.080322265625,
                    439.380615234375,
                    64.86363220214844
                ],
                [
                    283.75103759765625,
                    492.85009765625,
                    -233.4609375
                ],
                [
                    244.287841796875,
                    485.16778564453125,
                    -287.72662353515625
                ],
                [
                    94.13644409179688,
                    528.4478759765625,
                    -299.6506652832031
                ],
                [
                    37.91693115234375,
                    553.8294677734375,
                    -264.2850341796875
                ],
                [
                    484.438232421875,
                    -31.20660400390625,
                    377.131591796875
                ],
                [
                    520.782958984375,
                    -18.47492218017578,
                    326.26898193359375
                ],
                [
                    566.4595947265625,
                    -233.6607666015625,
                    49.87602233886719
                ],
                [
                    584.2349853515625,
                    -174.9254150390625,
                    77.22019958496094
                ],
                [
                    416.7001953125,
                    -348.051025390625,
                    -288.4912109375
                ],
                [
                    462.32220458984375,
                    -297.9920654296875,
                    -274.7532043457031
                ],
                [
                    384.53997802734375,
                    -472.21484375,
                    84.15213012695312
                ],
                [
                    401.8736572265625,
                    -443.927001953125,
                    139.43386840820312
                ],
                [
                    265.94952392578125,
                    -291.4500732421875,
                    471.46527099609375
                ],
                [
                    310.93780517578125,
                    -311.7489013671875,
                    429.127685546875
                ],
                [
                    520.88623046875,
                    -263.40740966796875,
                    -192.77471923828125
                ],
                [
                    530.8770751953125,
                    -288.46612548828125,
                    -113.48089599609375
                ],
                [
                    444.19775390625,
                    -425.13671875,
                    -0.3784942626953125
                ],
                [
                    490.8319091796875,
                    -363.7076416015625,
                    69.24423217773438
                ],
                [
                    467.9788818359375,
                    -307.55450439453125,
                    253.66970825195312
                ],
                [
                    344.8106689453125,
                    -405.19647216796875,
                    308.0151062011719
                ],
                [
                    211.29803466796875,
                    -529.8177490234375,
                    229.49441528320312
                ],
                [
                    272.363525390625,
                    -537.4532470703125,
                    122.323486328125
                ],
                [
                    571.198974609375,
                    -123.04669189453125,
                    -191.171875
                ],
                [
                    572.3413696289062,
                    -70.07241821289062,
                    213.2156982421875
                ],
                [
                    529.1033325195312,
                    -154.43939208984375,
                    271.9986572265625
                ],
                [
                    400.2122802734375,
                    -99.60150146484375,
                    455.8284912109375
                ],
                [
                    283.85955810546875,
                    -165.67764282226562,
                    519.471923828125
                ],
                [
                    222.68292236328125,
                    -362.2222900390625,
                    443.9599609375
                ],
                [
                    217.25494384765625,
                    -427.53961181640625,
                    384.793212890625
                ],
                [
                    282.105224609375,
                    0.2369384765625,
                    546.156494140625
                ],
                [
                    398.732666015625,
                    29.606307983398438,
                    467.15380859375
                ],
                [
                    454.03271484375,
                    153.57034301757812,
                    385.0140380859375
                ],
                [
                    544.5528564453125,
                    160.1622314453125,
                    236.26416015625
                ],
                [
                    419.686767578125,
                    378.16180419921875,
                    242.411865234375
                ],
                [
                    234.93408203125,
                    231.42660522460938,
                    518.7890625
                ],
                [
                    230.01336669921875,
                    413.17431640625,
                    392.981201171875
                ],
                [
                    205.0509033203125,
                    465.57415771484375,
                    345.253662109375
                ],
                [
                    -80.91006469726562,
                    -236.021484375,
                    561.801513671875
                ],
                [
                    8.629150390625,
                    -148.54913330078125,
                    596.423828125
                ],
                [
                    -263.1893310546875,
                    -188.6258544921875,
                    522.4818115234375
                ],
                [
                    -381.14013671875,
                    -81.50274658203125,
                    475.3837890625
                ],
                [
                    -401.4910888671875,
                    -286.9784851074219,
                    366.609619140625
                ],
                [
                    -514.0533447265625,
                    -268.69659423828125,
                    203.7950439453125
                ],
                [
                    -509.487060546875,
                    -315.1827392578125,
                    138.4150390625
                ],
                [
                    -445.599853515625,
                    -408.771240234375,
                    -110.76702880859375
                ],
                [
                    -308.18450927734375,
                    -479.2401123046875,
                    -230.95591735839844
                ],
                [
                    -228.4791259765625,
                    -489.5701904296875,
                    -293.0811462402344
                ],
                [
                    -256.57501220703125,
                    -558.2547607421875,
                    16.265655517578125
                ],
                [
                    -333.19403076171875,
                    -511.2374267578125,
                    -75.58163452148438
                ],
                [
                    -273.19268798828125,
                    -298.2757568359375,
                    -462.9552001953125
                ],
                [
                    560.818359375,
                    -135.35147094726562,
                    212.34942626953125
                ],
                [
                    565.4844970703125,
                    175.78912353515625,
                    164.8529052734375
                ],
                [
                    335.1285400390625,
                    453.5427551269531,
                    244.9227294921875
                ],
                [
                    109.9598388671875,
                    602.0992431640625,
                    -56.321533203125
                ],
                [
                    213.0692138671875,
                    551.1322021484375,
                    -169.65313720703125
                ],
                [
                    134.01904296875,
                    -9.623931884765625,
                    -599.8973388671875
                ],
                [
                    90.69473266601562,
                    -74.84683227539062,
                    -603.328857421875
                ],
                [
                    -67.09268188476562,
                    -17.831512451171875,
                    -610.73291015625
                ],
                [
                    7.119842529296875,
                    149.8751220703125,
                    -596.1278076171875
                ],
                [
                    -406.0743408203125,
                    -47.4158935546875,
                    459.0893249511719
                ],
                [
                    -428.201416015625,
                    -290.96649169921875,
                    331.6290283203125
                ],
                [
                    -422.1627197265625,
                    -191.97457885742188,
                    403.607421875
                ],
                [
                    -187.3424072265625,
                    -179.42990112304688,
                    557.2899169921875
                ],
                [
                    -159.2113037109375,
                    -46.4818115234375,
                    592.0076904296875
                ],
                [
                    -196.14453125,
                    228.71026611328125,
                    535.812255859375
                ],
                [
                    -183.0885009765625,
                    134.58355712890625,
                    571.135498046875
                ],
                [
                    93.11263275146484,
                    365.66015625,
                    485.410888671875
                ],
                [
                    345.3953857421875,
                    81.19234466552734,
                    502.0428466796875
                ],
                [
                    419.3829345703125,
                    -401.4552001953125,
                    -202.22879028320312
                ],
                [
                    198.5579833984375,
                    -566.12939453125,
                    134.4449462890625
                ],
                [
                    503.1527099609375,
                    -281.9759521484375,
                    212.7485809326172
                ],
                [
                    435.80810546875,
                    -206.4866943359375,
                    381.23992919921875
                ],
                [
                    163.27691650390625,
                    -55.445343017578125,
                    590.04052734375
                ],
                [
                    93.34989929199219,
                    580.265380859375,
                    -180.6287841796875
                ],
                [
                    38.84088134765625,
                    481.9652099609375,
                    -379.6339111328125
                ],
                [
                    275.4279479980469,
                    438.0697021484375,
                    -331.83575439453125
                ],
                [
                    351.283447265625,
                    503.33721923828125,
                    -33.58148193359375
                ],
                [
                    469.50274658203125,
                    326.29736328125,
                    225.76266479492188
                ]
            ],
            "landing_zones": {
                "list": [
                    [
                        439.04144287109375,
                        -325.33642578125,
                        -281.8092956542969
                    ],
                    [
                        575.666259765625,
                        -205.69085693359375,
                        64.14484405517578
                    ],
                    [
                        394.166748046875,
                        -458.741455078125,
                        109.90957641601562
                    ],
                    [
                        287.989013671875,
                        -302.4607849121094,
                        451.1646728515625
                    ],
                    [
                        504.921875,
                        -24.458938598632812,
                        350.02813720703125
                    ],
                    [
                        5.6314697265625,
                        252.3892822265625,
                        560.45751953125
                    ],
                    [
                        262.65460205078125,
                        490.1268310546875,
                        -261.992919921875
                    ],
                    [
                        65.7435302734375,
                        540.4969482421875,
                        -285.52105712890625
                    ],
                    [
                        -292.2115478515625,
                        8.40704345703125,
                        540.8448486328125
                    ],
                    [
                        -497.1015625,
                        -116.21047973632812,
                        342.3966064453125
                    ],
                    [
                        -248.22430419921875,
                        -321.44305419921875,
                        461.4697265625
                    ],
                    [
                        -405.601318359375,
                        -462.0096435546875,
                        4.746795654296875
                    ],
                    [
                        -193.52215576171875,
                        -573.5125732421875,
                        -107.55892944335938
                    ],
                    [
                        -293.84967041015625,
                        -412.6441650390625,
                        -348.51446533203125
                    ],
                    [
                        334.63397216796875,
                        338.48712158203125,
                        389.1166076660156
                    ],
                    [
                        431.258544921875,
                        437.08990478515625,
                        30.2589054107666
                    ]
                ],
                "rules": [
                    {
                        "min": 2,
                        "max": 16
                    },
                    {
                        "min": 2,
                        "max": 16
                    },
                    {
                        "min": 2,
                        "max": 16
                    },
                    {
                        "min": 2,
                        "max": 16
                    },
                    {
                        "min": 2,
                        "max": 16
                    },
                    {
                        "min": 2,
                        "max": 16
                    },
                    {
                        "min": 2,
                        "max": 16
                    },
                    {
                        "min": 2,
                        "max": 16
                    },
                    {
                        "min": 2,
                        "max": 16
                    },
                    {
                        "min": 2,
                        "max": 16
                    },
                    {
                        "min": 2,
                        "max": 16
                    },
                    {
                        "min": 2,
                        "max": 16
                    },
                    {
                        "min": 2,
                        "max": 16
                    },
                    {
                        "min": 2,
                        "max": 16
                    },
                    {
                        "min": 2,
                        "max": 16
                    },
                    {
                        "min": 2,
                        "max": 16
                    }
                ]
            }
        }
    ]
}